Language model created by QuickLM on Thu Nov 24 08:00:31 EST 2016
Copyright (c) 1996-2010 Carnegie Mellon University and Alexander I. Rudnicky

The model is in standard ARPA format, designed by Doug Paul while he was at MITRE.

The code that was used to produce this language model is available in Open Source.
Please visit http://www.speech.cs.cmu.edu/tools/ for more information

The (fixed) discount mass is 0.5. The backoffs are computed using the ratio method.
This model based on a corpus of 36 sentences and 35 words

\data\
ngram 1=35
ngram 2=72
ngram 3=73

\1-grams:
-0.9700 </s> -0.3010
-0.9700 <s> -0.2386
-2.2253 ABOVE -0.2518
-2.2253 AHEAD -0.2518
-2.5263 AREA -0.2518
-2.5263 BACK -0.2518
-2.5263 BEHIND -0.2958
-2.5263 BRIDGE -0.2518
-2.5263 COME -0.2997
-2.2253 FOR -0.2984
-2.5263 FOREST -0.2518
-1.2253 GO -0.2604
-2.2253 KITE -0.2518
-2.0492 LAKE -0.2518
-2.2253 LEFT -0.2518
-2.2253 LOOK -0.2984
-2.2253 MISSION -0.2518
-1.9243 NEXT -0.2295
-2.2253 OF -0.2879
-2.2253 PICTURE -0.2518
-1.9243 RIGHT -0.2489
-1.8274 ROCK -0.2460
-2.5263 ROCKS -0.2518
-2.0492 SCAN -0.2906
-2.5263 SEA -0.2518
-2.5263 SHOW -0.2984
-2.5263 START -0.2984
-2.5263 STOP -0.2984
-2.5263 TAKE -0.2984
-1.9243 THAT -0.2839
-1.3502 TO -0.2172
-1.8274 TREE -0.2460
-2.5263 TUNNEL -0.2518
-2.5263 VICTIM -0.2518
-2.5263 VICTIMS -0.2518

\2-grams:
-1.8573 <s> ABOVE 0.0000
-1.8573 <s> AHEAD 0.0000
-1.8573 <s> BRIDGE 0.0000
-1.8573 <s> COME 0.0000
-0.5563 <s> GO 0.0000
-1.8573 <s> LEFT 0.0000
-1.5563 <s> LOOK 0.0000
-1.8573 <s> NEXT -0.2430
-1.8573 <s> RIGHT -0.1761
-1.3802 <s> SCAN 0.0000
-1.8573 <s> SHOW 0.0000
-1.8573 <s> START 0.0000
-1.8573 <s> STOP 0.0000
-1.8573 <s> TAKE 0.0000
-0.3010 ABOVE </s> -0.3010
-0.3010 AHEAD </s> -0.3010
-0.3010 AREA </s> -0.3010
-0.3010 BACK </s> -0.3010
-0.3010 BEHIND THAT -0.1761
-0.3010 BRIDGE </s> -0.3010
-0.3010 COME BACK 0.0000
-0.6021 FOR ROCKS 0.0000
-0.6021 FOR VICTIMS 0.0000
-0.3010 FOREST </s> -0.3010
-1.6021 GO ABOVE 0.0000
-1.6021 GO AHEAD 0.0000
-1.6021 GO BEHIND 0.0000
-1.6021 GO LEFT 0.0000
-1.6021 GO NEXT -0.0969
-1.1249 GO RIGHT 0.0000
-0.5229 GO TO -0.0280
-0.3010 KITE </s> -0.3010
-0.3010 LAKE </s> -0.3010
-0.3010 LEFT </s> -0.3010
-0.3010 LOOK FOR 0.0000
-0.3010 MISSION </s> -0.3010
-0.9031 NEXT </s> -0.3010
-0.4260 NEXT TO -0.2041
-0.6021 OF ROCK -0.2553
-0.6021 OF TREE -0.2553
-0.3010 PICTURE </s> -0.3010
-0.6021 RIGHT </s> -0.3010
-0.6021 RIGHT OF 0.0000
-0.3979 ROCK </s> -0.3010
-1.0000 ROCK NEXT -0.0969
-0.3010 ROCKS </s> -0.3010
-0.7782 SCAN AREA 0.0000
-0.7782 SCAN LAKE 0.0000
-0.7782 SCAN THAT -0.2430
-0.3010 SEA </s> -0.3010
-0.3010 SHOW PICTURE 0.0000
-0.3010 START MISSION 0.0000
-0.3010 STOP MISSION 0.0000
-0.3010 TAKE PICTURE 0.0000
-0.9031 THAT LAKE 0.0000
-0.9031 THAT ROCK -0.0792
-0.6021 THAT TREE -0.0792
-1.4771 TO </s> -0.3010
-1.4771 TO FOREST 0.0000
-1.1761 TO KITE 0.0000
-1.4771 TO LAKE 0.0000
-1.0000 TO ROCK -0.0792
-1.4771 TO SEA 0.0000
-1.1761 TO THAT -0.0969
-1.1761 TO TREE -0.0792
-1.4771 TO TUNNEL 0.0000
-1.4771 TO VICTIM 0.0000
-0.3979 TREE </s> -0.3010
-1.0000 TREE NEXT -0.0969
-0.3010 TUNNEL </s> -0.3010
-0.3010 VICTIM </s> -0.3010
-0.3010 VICTIMS </s> -0.3010

\3-grams:
-0.3010 <s> ABOVE </s>
-0.3010 <s> AHEAD </s>
-0.3010 <s> BRIDGE </s>
-0.3010 <s> COME BACK
-1.6021 <s> GO ABOVE
-1.6021 <s> GO AHEAD
-1.6021 <s> GO BEHIND
-1.6021 <s> GO LEFT
-1.6021 <s> GO NEXT
-1.1249 <s> GO RIGHT
-0.5229 <s> GO TO
-0.3010 <s> LEFT </s>
-0.3010 <s> LOOK FOR
-0.3010 <s> NEXT </s>
-0.3010 <s> RIGHT </s>
-0.7782 <s> SCAN AREA
-0.7782 <s> SCAN LAKE
-0.7782 <s> SCAN THAT
-0.3010 <s> SHOW PICTURE
-0.3010 <s> START MISSION
-0.3010 <s> STOP MISSION
-0.3010 <s> TAKE PICTURE
-0.3010 BEHIND THAT TREE
-0.3010 COME BACK </s>
-0.3010 FOR ROCKS </s>
-0.3010 FOR VICTIMS </s>
-0.3010 GO ABOVE </s>
-0.3010 GO AHEAD </s>
-0.3010 GO BEHIND THAT
-0.3010 GO LEFT </s>
-0.3010 GO NEXT TO
-0.7782 GO RIGHT </s>
-0.4771 GO RIGHT OF
-1.3802 GO TO FOREST
-1.0792 GO TO KITE
-1.3802 GO TO LAKE
-1.0792 GO TO ROCK
-1.3802 GO TO SEA
-1.0792 GO TO THAT
-1.3802 GO TO TREE
-1.3802 GO TO TUNNEL
-1.3802 GO TO VICTIM
-0.6021 LOOK FOR ROCKS
-0.6021 LOOK FOR VICTIMS
-0.7782 NEXT TO </s>
-0.7782 NEXT TO ROCK
-0.7782 NEXT TO TREE
-0.3010 OF ROCK NEXT
-0.3010 OF TREE NEXT
-0.6021 RIGHT OF ROCK
-0.6021 RIGHT OF TREE
-0.3010 ROCK NEXT TO
-0.3010 SCAN AREA </s>
-0.3010 SCAN LAKE </s>
-0.3010 SCAN THAT LAKE
-0.3010 SHOW PICTURE </s>
-0.3010 START MISSION </s>
-0.3010 STOP MISSION </s>
-0.3010 TAKE PICTURE </s>
-0.3010 THAT LAKE </s>
-0.3010 THAT ROCK </s>
-0.3010 THAT TREE </s>
-0.3010 TO FOREST </s>
-0.3010 TO KITE </s>
-0.3010 TO LAKE </s>
-0.3010 TO ROCK </s>
-0.3010 TO SEA </s>
-0.6021 TO THAT ROCK
-0.6021 TO THAT TREE
-0.3010 TO TREE </s>
-0.3010 TO TUNNEL </s>
-0.3010 TO VICTIM </s>
-0.3010 TREE NEXT TO

\end\
